6.72
5.17
4.42
2.57
6.54
4.3
3.88
7.76
6.21
12.24
4.1
5.49
6.47
5.46
5.65
5.52
6.95
4.45
5.94
5.77
5.32
6.49
4.37
4.63
2.42
5.83
5.98
5.99
4.42
5.14
6.49
12.25
2.58
3.29
5.13
5.03
2.88
2.79
6.34
11.5
5.41
7.72
4.48
5.54
2.89
3.92
2.54
4.45
4.06
2.65
10.5
4.94
4.54
6.68
4.27
5.47
6.16
4.82
7.9
3.48
3.76
5.58
2.31
5.55
5.19
3.1
6.89
4.34
5.83
2.8
4.06
3.08
3.42
7.73
5.62
4.11
3.66
7.14
7.38
6.8
4.0
4.29
4.35
6.61
3.03
4.84
7.5
3.0
3.56
3.96
5.32
2.35
4.42
4.05
5.53
4.69
7.19
6.49
7.88
6.93
-3.2685232472179
-5.31185559878075
-4.4573808635787
-5.78744056668702
-4.98245604972388
-4.27035510925379
-4.21328250048861
-7.07729790568008
-5.21093856497064
-2.93893045668805
-6.31585844463588
-4.43274122303704
-5.19731830341412
-5.79056228367796
-4.62122401741767
-5.84815717239784
-6.48731099411621
-4.69801864197419
-7.99459941973273
-6.71341075726417
-3.16989907211926
-4.88469049832369
-4.13641360155042
-4.06525036574341
-2.78922801491522
-3.61401628363894
-6.16362651179995
-5.51963390882424
-6.81138941774231
-7.33370307566836
-6.76283423599884
-2.8288992151876
-4.07242124510159
-4.91109054105467
-6.11587468909244
-5.08350289930869
-4.47517315279687
-5.97612918971683
-6.02242677923892
-6.17442895003207
-5.60523316780774
-7.90795437640701
-6.00642025687927
-7.54249882988901
-6.25849156264326
-5.55390363791939
-4.57288793728562
-4.91592614916854
-2.21579283337149
-4.08956263954725
-5.9821251797861
-6.41657135095627
-3.65838779982727
-5.95929145429104
-3.69170541830237
-6.19746562673535
-4.18599103455338
-4.74230951083083
-5.13406598528544
-3.2296129534946
-5.51507429861603
-6.48116617721859
-6.31695484287482
-2.93415111223569
-4.45585250571239
-4.10550516784571
-4.34205077192677
-4.04197128233514
-5.07767899704456
-2.74324793713551
-6.80612022458171
-6.48860122169594
-3.6653248820374
-4.13787707656239
-4.13102430094672
-6.15723008649931
-4.93328893661206
-2.69471272319382
-4.0301951692643
-5.60489575404302
-4.32819548140038
-10.11
-4.16884453799076
-3.7963832188638
-4.20347241694857
-5.31707010951406
-3.25805651312247
-4.00033659809125
-7.03862274869746
-7.87010022674708
-5.7439647779204
-6.61524204436627
-3.06833910806773
-2.39684632720841
-3.43385447573308
-4.1933954541624
-4.52390910499244
-4.81661875144373
-6.96539731037314
-4.8839540097763
-5.19762557581001
-3.88685423670621
-4.82045975464342
-5.24877407978578
-5.4708166889597
-5.00859528125457
-6.33481109997867
-4.85763986817966
-7.07671587480457
-6.46116843709183
-4.82058913478277
-4.10752846209487
-5.64872344465753
-2.30214304882276
-2.62821254595346
-12.05
-5.82660191313594
-6.60605771627636
-5.44651928776445
-5.98047309685855
