2.65
10.5
4.94
4.54
6.68
4.27
5.47
6.16
4.82
7.9
3.48
3.76
5.58
2.31
5.55
5.19
3.1
6.89
4.34
5.83
2.8
4.06
3.08
3.42
7.73
5.62
4.11
3.66
7.14
7.38
6.8
4.0
4.29
4.35
6.61
3.03
4.84
7.5
3.0
3.56
3.96
5.32
2.35
4.42
4.05
5.53
4.69
7.19
6.49
7.88
6.93
-3.2685232472179
-5.31185559878075
-4.4573808635787
-5.78744056668702
-4.98245604972388
-4.27035510925379
-4.21328250048861
-7.07729790568008
-5.21093856497064
-2.93893045668805
-6.31585844463588
-4.43274122303704
-5.19731830341412
-5.79056228367796
-4.62122401741767
-5.84815717239784
-6.48731099411621
-4.69801864197419
-7.99459941973273
-6.71341075726417
-3.16989907211926
-4.88469049832369
-4.13641360155042
-4.06525036574341
-2.78922801491522
-3.61401628363894
-6.16362651179995
-5.51963390882424
-6.81138941774231
-7.33370307566836
-6.76283423599884
-2.8288992151876
-4.07242124510159
-4.91109054105467
-6.11587468909244
-5.08350289930869
-4.47517315279687
-5.97612918971683
-6.02242677923892
-6.17442895003207
-5.60523316780774
-7.90795437640701
-6.00642025687927
-7.54249882988901
-6.25849156264326
-5.55390363791939
-4.57288793728562
-4.91592614916854
-2.21579283337149
