6.72
5.17
4.42
2.57
6.54
4.3
3.88
7.76
6.21
7.19
4.1
5.49
6.47
5.46
5.65
5.52
6.95
4.45
5.94
5.77
5.32
6.49
4.37
4.63
2.42
5.83
5.98
5.99
4.42
5.14
6.49
6.17
2.58
3.29
5.13
5.03
2.88
2.79
6.34
5.92
5.41
7.72
4.48
5.54
2.89
3.92
2.54
4.45
4.06
2.65
2.55
4.94
4.54
6.68
4.27
5.47
6.16
4.82
7.9
3.48
3.76
5.58
2.31
5.55
5.19
3.1
6.89
4.34
5.83
2.8
4.06
3.08
3.42
7.73
5.62
4.11
3.66
7.14
7.38
6.8
4
4.29
4.35
6.61
3.03
4.84
7.5
3
3.56
3.96
5.32
2.35
4.42
4.05
5.53
4.69
7.19
6.49
7.88
6.93
-3.27
-5.31
-4.46
-5.79
-4.98
-4.27
-4.21
-7.08
-5.21
-2.94
-6.32
-4.43
-5.2
-5.79
-4.62
-5.85
-6.49
-4.7
-7.99
-6.71
-3.17
-4.88
-4.14
-4.07
-2.79
-3.61
-6.16
-5.52
-6.81
-7.33
-6.76
-2.83
-4.07
-4.91
-6.12
-5.08
-4.48
-5.98
-6.02
-6.17
-5.61
-7.91
-6.01
-7.54
-6.26
-5.55
-4.57
-4.92
-2.22
-4.09
-5.98
-6.42
-3.66
-5.96
-3.69
-6.2
-4.19
-4.74
-5.13
-3.23
-5.52
-6.48
-6.32
-2.93
-4.46
-4.11
-4.34
-4.04
-5.08
-2.74
-6.81
-6.49
-3.67
-4.14
-4.13
-6.16
-4.93
-2.69
-4.03
-5.6
-4.33
-5.65
-4.17
-3.8
-4.2
-5.32
-3.26
-4
-7.04
-7.87
-5.74
-6.62
-3.07
-2.4
-3.43
-4.19
-4.52
-4.82
-6.97
-4.88